{"levels":[{"inputCount":10,"outputCount":6,"inputs":[0.5544234377251296,0.5896150904226489,0.6358782547791864,0.6587314763989413,0,0,0,0,0,0.13764602951424998],"outputs":[1,1,0,1,0,1],"biases":[-0.11101742084689442,-0.01829733722406684,0.017437637071628438,0.17703562634027556,0.06667875832156361,-0.22074356476709667],"weights":[[0.10797511472140657,0.22532370990455297,0.20614162370001898,0.18988586925411283,-0.1034598111433791,-0.11006940709114602],[-0.1672450321788239,0.15968437819984116,0.17943057578856814,-0.13346219950948135,-0.0514978351771008,-0.1016065570084935],[0.04012039357439573,0.13578715956350323,-0.12712728247871355,0.11838960275045655,0.02363592186510221,-0.15264312754525386],[-0.06453575457282172,-0.031814685274889884,-0.35195206836045634,0.1258511866287262,0.02453104068271069,0.13380688168414903],[0.12661525051170575,-0.008649350294773811,-0.04966337536323265,0.1113858862352596,0.024562300545336417,0.051307914851085705],[0.23190386831491375,0.04121688707385164,-0.2640999339226404,0.09883413717487385,-0.35410620173495116,0.09148275262153997],[0.1619893437808976,-0.02584244769591147,0.031965552299729534,-0.15143887812102932,-0.3256188880695965,-0.057906674307964846],[0.11492402452856981,-0.09087652190542923,-0.007999883797589532,-0.1815958898407182,0.1313565270137807,0.07853045970898322],[0.02254683971272722,0.022817297609392672,0.09810516571454249,-0.06527843110646611,-0.018794519313442233,0.07927924253076316],[-0.3089419644339248,-0.22083786359045351,0.058263994252769,-0.14627378192267318,0.026771134831334805,-0.027323472534544566]]},{"inputCount":6,"outputCount":4,"inputs":[1,1,0,1,0,1],"outputs":[1,0,1,0],"biases":[-0.020148951503891677,-0.07989318469767165,0.07858722380046118,0.13618844175271017],"weights":[[-0.10024652951786164,-0.1287458903147954,0.025589785829890105,-0.21503969487772556],[0.02667709158051352,0.05279218478602512,0.01509482381432092,-0.06300794061908835],[0.16139110240687046,-0.20218282358352715,-0.06705158366309759,0.14963881074205326],[0.1237187474574463,-0.07748331190849708,0.09283982221318032,-0.10747573455706083],[0.22121462973412276,0.1275419546583644,0.2692783033154096,-0.11116187315884915],[0.10652298197221521,0.12196685244556656,-0.053388731854143744,-0.11608816303808467]]}],"fitness":132910.40852243852}